<?xml version="1.0" encoding="UTF-8"?>
<!-- This network was created in GeNIe Academic, which can be used for academic teaching and research purposes only -->
<smile version="1.0" id="water_dataset_categorical" numsamples="10000" discsamples="10000">
	<nodes>
		<cpt id="Specific_conductance__Minimum_">
			<state id="x_0_000492__0_334_" />
			<state id="x0_334__0_667_" />
			<state id="x0_667__1_0_" />
			<probabilities>0.9598236534406747 0.02139160437032777 0.01878474218899751</probabilities>
		</cpt>
		<cpt id="Specific_conductance__Maximum_">
			<state id="x_0_000473__0_334_" />
			<state id="x0_334__0_667_" />
			<state id="x0_667__1_0_" />
			<parents>Specific_conductance__Minimum_</parents>
			<probabilities>0.9467987378679554 0.05312138035707153 7.98817749730399e-05 0.0005963029218843172 0.8753726893261776 0.124031007751938 0.000678886625933469 0.000678886625933469 0.998642226748133</probabilities>
		</cpt>
		<cpt id="pH__standard_units__Maximum_">
			<state id="x0_41__0_607_" />
			<state id="x0_607__0_803_" />
			<state id="x0_803__1_0_" />
			<probabilities>0.000230017251293847 0.01468276787425724 0.9850872148744488</probabilities>
		</cpt>
		<cpt id="Dissolved_oxygen__Maximum_">
			<state id="x0_719__0_813_" />
			<state id="x0_813__0_907_" />
			<state id="x0_907__1_0_" />
			<parents>Specific_conductance__Minimum_</parents>
			<probabilities>0.07488916403722491 0.8897631505372049 0.03534768542557015 0.0005963029218843172 0.717948717948718 0.2814549791293978 0.000678886625933469 0.6422267481330617 0.3570943652410047</probabilities>
		</cpt>
		<cpt id="Temperature__Minimum_">
			<state id="x0_0215__0_348_" />
			<state id="x0_348__0_674_" />
			<state id="x0_674__1_0_" />
			<parents>Specific_conductance__Maximum_</parents>
			<probabilities>0.1930394431554524 0.455600084370386 0.3513604724741616 0.01759208356239692 0.4134139637163277 0.5689939527212754 0.0196078431372549 0.285204991087344 0.6951871657754011</probabilities>
		</cpt>
		<cpt id="Temperature__Mean_">
			<state id="x0_0584__0_373_" />
			<state id="x0_373__0_686_" />
			<state id="x0_686__1_0_" />
			<parents>Temperature__Minimum_</parents>
			<probabilities>0.9300714440355055 0.06971205888720503 0.0002164970772894566 0.02194330601092896 0.9453551912568307 0.03270150273224044 3.41705108491372e-05 0.0192038270972151 0.9807620023919359</probabilities>
		</cpt>
		<cpt id="pH__standard_units__Minimum_">
			<state id="x_0_000744__0_334_" />
			<state id="x0_334__0_667_" />
			<state id="x0_667__1_0_" />
			<parents>Specific_conductance__Minimum_ Dissolved_oxygen__Maximum_ Temperature__Mean_</parents>
			<probabilities>0.997997997997998 0.001001001001001001 0.001001001001001001 0.9991738950846757 0.000413052457662123 0.000413052457662123 0.9990966576332428 0.0004516711833785004 0.0004516711833785004 0.9998346970824034 8.265145879824777e-05 8.265145879824777e-05 0.9999320975079785 3.395124601072859e-05 3.395124601072859e-05 0.9999209079764304 3.95460117847115e-05 3.95460117847115e-05 0.9959595959595958 0.00202020202020202 0.00202020202020202 0.998790078644888 0.0006049606775559587 0.0006049606775559587 0.9961240310077518 0.001937984496124031 0.001937984496124031 0.3333333333333333 0.3333333333333333 0.3333333333333333 0.3333333333333333 0.3333333333333333 0.3333333333333333 0.3333333333333333 0.3333333333333333 0.3333333333333333 0.7777777777777777 0.1111111111111111 0.1111111111111111 0.5176767676767676 0.4797979797979798 0.002525252525252525 0.7187112763320942 0.2800495662949194 0.001239157372986369 0.03333333333333333 0.9333333333333332 0.03333333333333333 0.3166666666666667 0.6809523809523809 0.002380952380952381 0.03333333333333333 0.9333333333333332 0.03333333333333333 0.3333333333333333 0.3333333333333333 0.3333333333333333 0.3333333333333333 0.3333333333333333 0.3333333333333333 0.3333333333333333 0.3333333333333333 0.3333333333333333 0.3333333333333333 0.3333333333333333 0.3333333333333333 0.01666666666666667 0.01666666666666667 0.9666666666666667 0.001122334455667789 0.1054994388327722 0.89337822671156 0.02222222222222222 0.02222222222222222 0.9555555555555556 0.002777777777777777 0.05277777777777778 0.9444444444444444 0.007751937984496124 0.007751937984496124 0.9844961240310078</probabilities>
		</cpt>
		<cpt id="Specific_conductance__Mean_">
			<state id="x0_118__0_412_" />
			<state id="x0_412__0_706_" />
			<state id="x0_706__1_0_" />
			<parents>Temperature__Minimum_</parents>
			<probabilities>0.0002164970772894566 0.5109331024031175 0.4888504005195929 0.02057718579234973 0.9510758196721312 0.02834699453551913 0.2685052286241542 0.7277014558129998 0.003793315562846012</probabilities>
		</cpt>
		<cpt id="Dissolved_oxygen__Minimum_">
			<state id="x0_0305__0_354_" />
			<state id="x0_354__0_677_" />
			<state id="x0_677__1_0_" />
			<parents>Specific_conductance__Mean_ Temperature__Mean_</parents>
			<probabilities>0.3333333333333333 0.3333333333333333 0.3333333333333333 0.5760743321718932 0.4227642276422764 0.00116144018583043 0.8611542443064181 0.1387163561076604 0.000129399585921325 0.002926421404682274 0.205685618729097 0.7913879598662207 0.01563074659801398 0.7965244575211475 0.1878447958808385 0.09308776716689406 0.9068667576170987 4.547521600727604e-05 0.0001541782300339192 0.01541782300339192 0.9844279987665743 0.0007936507936507937 0.5317460317460319 0.4674603174603175 0.006944444444444442 0.9861111111111109 0.006944444444444442</probabilities>
		</cpt>
		<cpt id="Dissolved_oxygen__Mean_">
			<state id="x0_0672__0_379_" />
			<state id="x0_379__0_689_" />
			<state id="x0_689__1_0_" />
			<parents>Dissolved_oxygen__Minimum_ Temperature__Minimum_</parents>
			<probabilities>0.08333333333333333 0.6666666666666666 0.25 0.4080459770114943 0.5908045977011495 0.001149425287356322 0.7982098345796509 0.2016768638114661 0.0001133016088828461 0.0006313131313131313 0.6672979797979798 0.3320707070707071 0.0002163799632154062 0.9499080385156334 0.04987558152115114 0.001956755699050974 0.9979943254084728 4.891889247627434e-05 8.167932696234582e-05 0.004737400963816057 0.9951809197092216 0.0001528350909368791 0.097355952926792 0.9024912119822711 0.3333333333333333 0.3333333333333333 0.3333333333333333</probabilities>
		</cpt>
		<cpt id="Temperature__Maximum_">
			<state id="x0_0892__0_393_" />
			<state id="x0_393__0_697_" />
			<state id="x0_697__1_0_" />
			<parents>Temperature__Mean_</parents>
			<probabilities>0.973503147416191 0.02642365685843947 7.319572536963843e-05 0.06009843709524221 0.9349797081426475 0.004921854762110353 3.34941050375134e-05 0.1376942658092176 0.862272240085745</probabilities>
		</cpt>
		<cpt id="Target">
			<state id="State0" />
			<state id="State1" />
			<parents>Specific_conductance__Maximum_ pH__standard_units__Minimum_ Specific_conductance__Minimum_ Dissolved_oxygen__Maximum_ Dissolved_oxygen__Mean_ Temperature__Minimum_</parents>
			<probabilities>0.75 0.25 0.9878048780487805 0.01219512195121951 0.9915966386554621 0.008403361344537815 0.9912280701754386 0.008771929824561403 0.9860896445131375 0.01391035548686244 0.9940944881889764 0.005905511811023622 0.9961538461538462 0.003846153846153846 0.9661016949152542 0.03389830508474576 0.5 0.5 0.5 0.5 0.9642857142857142 0.03571428571428571 0.8735262593783494 0.1264737406216506 0.5719424460431655 0.4280575539568345 0.5149304148088096 0.4850695851911904 0.522381172127365 0.477618827872635 0.5163227996866023 0.4836772003133978 0.423923006416132 0.576076993583868 0.5 0.5 0.5 0.5 0.5 0.5 0.25 0.75 0.03846153846153846 0.9615384615384616 0.001945525291828794 0.9980544747081712 0.003355704697986577 0.9966442953020134 0.003546099290780142 0.9964539007092198 0.003875968992248062 0.9961240310077519 0.5 0.5 0.5 0.5 0.5 0.5 0.5 0.5 0.5 0.5 0.5 0.5 0.5 0.5 0.5 0.5 0.5 0.5 0.5 0.5 0.5 0.5 0.5 0.5 0.5 0.5 0.5 0.5 0.5 0.5 0.5 0.5 0.5 0.5 0.5 0.5 0.5 0.5 0.5 0.5 0.5 0.5 0.5 0.5 0.5 0.5 0.5 0.5 0.5 0.5 0.5 0.5 0.5 0.5 0.5 0.5 0.5 0.5 0.5 0.5 0.5 0.5 0.5 0.5 0.5 0.5 0.5 0.5 0.5 0.5 0.5 0.5 0.5 0.5 0.5 0.5 0.5 0.5 0.5 0.5 0.5 0.5 0.5 0.5 0.5 0.5 0.5 0.5 0.5 0.5 0.5 0.5 0.5 0.5 0.5 0.5 0.5 0.5 0.5 0.5 0.5 0.5 0.5 0.5 0.5 0.5 0.5 0.5 0.5 0.5 0.5 0.5 0.5 0.5 0.5 0.5 0.5 0.5 0.5 0.5 0.5 0.5 0.5 0.5 0.5 0.5 0.5 0.5 0.5 0.5 0.5 0.5 0.5 0.5 0.5 0.5 0.5 0.5 0.5 0.5 0.5 0.5 0.5 0.5 0.5 0.5 0.5 0.5 0.5 0.5 0.5 0.5 0.5 0.5 0.5 0.5 0.5 0.5 0.5 0.5 0.5 0.5 0.5 0.5 0.5 0.5 0.5 0.5 0.5 0.5 0.5 0.5 0.5 0.5 0.5 0.5 0.5 0.5 0.5 0.5 0.5 0.5 0.5 0.5 0.5 0.5 0.5 0.5 0.5 0.5 0.5 0.5 0.5 0.5 0.5 0.5 0.5 0.5 0.5 0.5 0.5 0.5 0.5 0.5 0.5 0.5 0.5 0.5 0.5 0.5 0.5 0.5 0.5 0.5 0.5 0.5 0.5 0.5 0.5 0.5 0.5 0.5 0.5 0.5 0.5 0.5 0.5 0.5 0.5 0.5 0.5 0.5 0.5 0.5 0.5 0.5 0.5 0.5 0.5 0.5 0.5 0.5 0.5 0.5 0.5 0.5 0.5 0.5 0.5 0.5 0.5 0.5 0.5 0.5 0.5 0.5 0.5 0.5 0.5 0.5 0.5 0.5 0.5 0.5 0.5 0.5 0.5 0.5 0.5 0.5 0.5 0.5 0.5 0.5 0.5 0.5 0.5 0.5 0.5 0.5 0.5 0.5 0.5 0.5 0.5 0.5 0.5 0.5 0.5 0.5 0.5 0.5 0.5 0.5 0.5 0.5 0.5 0.5 0.5 0.5 0.5 0.5 0.5 0.5 0.5 0.5 0.5 0.5 0.5 0.5 0.5 0.5 0.5 0.5 0.5 0.5 0.5 0.5 0.5 0.5 0.5 0.5 0.5 0.5 0.5 0.5 0.5 0.5 0.5 0.5 0.5 0.5 0.5 0.5 0.5 0.5 0.5 0.5 0.5 0.5 0.5 0.5 0.5 0.5 0.5 0.5 0.5 0.5 0.5 0.5 0.5 0.5 0.5 0.5 0.5 0.5 0.5 0.5 0.5 0.5 0.5 0.5 0.5 0.5 0.5 0.5 0.5 0.5 0.5 0.5 0.5 0.5 0.5 0.5 0.5 0.5 0.5 0.5 0.5 0.5 0.5 0.5 0.5 0.5 0.5 0.5 0.5 0.5 0.5 0.5 0.5 0.5 0.5 0.5 0.5 0.5 0.5 0.5 0.5 0.5 0.5 0.5 0.5 0.5 0.5 0.5 0.5 0.5 0.5 0.5 0.5 0.5 0.5 0.5 0.5 0.5 0.5 0.5 0.5 0.5 0.5 0.5 0.5 0.5 0.5 0.5 0.5 0.5 0.5 0.5 0.5 0.5 0.5 0.5 0.5 0.5 0.75 0.25 0.6000000000000001 0.4 0.5 0.5 0.5 0.5 0.25 0.75 0.5 0.5 0.5 0.5 0.5 0.5 0.5 0.5 0.01785714285714286 0.9821428571428571 0.2644508670520231 0.7355491329479769 0.08333333333333333 0.9166666666666666 0.01027397260273973 0.9897260273972602 0.02830188679245283 0.9716981132075472 0.25 0.75 0.5 0.5 0.5 0.5 0.5 0.5 0.5 0.5 0.5 0.5 0.03846153846153846 0.9615384615384616 0.002717391304347826 0.9972826086956521 0.25 0.75 0.125 0.875 0.25 0.75 0.5 0.5 0.5 0.5 0.5 0.5 0.5 0.5 0.5 0.5 0.5 0.5 0.5 0.5 0.5 0.5 0.5 0.5 0.5 0.5 0.5 0.5 0.02777777777777778 0.9722222222222222 0.07428571428571429 0.9257142857142857 0.25 0.75 0.01 0.99 0.03125 0.96875 0.5 0.5 0.5 0.5 0.5 0.5 0.5 0.5 0.5 0.5 0.5 0.5 0.5 0.5 0.01111111111111111 0.9888888888888889 0.5 0.5 0.5 0.5 0.5 0.5 0.5 0.5 0.5 0.5 0.5 0.5 0.5 0.5 0.5 0.5 0.5 0.5 0.5 0.5 0.5 0.5 0.5 0.5 0.5 0.5 0.5 0.5 0.5 0.5 0.5 0.5 0.5 0.5 0.5 0.5 0.5 0.5 0.5 0.5 0.5 0.5 0.5 0.5 0.5 0.5 0.5 0.5 0.5 0.5 0.5 0.5 0.5 0.5 0.5 0.5 0.5 0.5 0.5 0.5 0.5 0.5 0.5 0.5 0.5 0.5 0.5 0.5 0.5 0.5 0.5 0.5 0.5 0.5 0.5 0.5 0.5 0.5 0.5 0.5 0.5 0.5 0.5 0.5 0.5 0.5 0.5 0.5 0.5 0.5 0.5 0.5 0.5 0.5 0.5 0.5 0.5 0.5 0.5 0.5 0.5 0.5 0.5 0.5 0.5 0.5 0.5 0.5 0.5 0.5 0.5 0.5 0.5 0.5 0.5 0.5 0.5 0.5 0.5 0.5 0.5 0.5 0.5 0.5 0.5 0.5 0.5 0.5 0.5 0.5 0.5 0.5 0.5 0.5 0.5 0.5 0.125 0.875 0.01851851851851852 0.9814814814814814 0.5 0.5 0.008620689655172414 0.9913793103448276 0.03333333333333333 0.9666666666666667 0.5 0.5 0.5 0.5 0.5 0.5 0.5 0.5 0.5 0.5 0.5 0.5 0.1 0.9 0.006329113924050633 0.9936708860759493 0.5 0.5 0.07142857142857142 0.9285714285714285 0.5 0.5 0.5 0.5 0.5 0.5 0.5 0.5 0.5 0.5 0.5 0.5 0.5 0.5 0.5 0.5 0.5 0.5 0.5 0.5 0.5 0.5 0.5 0.5 0.5 0.5 0.5 0.5 0.5 0.5 0.5 0.5 0.5 0.5 0.5 0.5 0.5 0.5 0.5 0.5 0.5 0.5 0.5 0.5 0.5 0.5 0.5 0.5 0.5 0.5 0.5 0.5 0.5 0.5 0.5 0.5 0.5 0.5 0.5 0.5 0.5 0.5 0.5 0.5 0.5 0.5 0.5 0.5 0.5 0.5 0.5 0.5 0.5 0.5 0.5 0.5 0.5 0.5 0.5 0.5 0.5 0.5 0.5 0.5 0.5 0.5 0.5 0.5 0.5 0.5 0.5 0.5 0.5 0.5 0.5 0.5 0.5 0.5 0.5 0.5 0.5 0.5 0.5 0.5 0.5 0.5 0.5 0.5 0.5 0.5 0.5 0.5 0.5 0.5 0.5 0.5 0.5 0.5 0.5 0.5 0.5 0.5 0.5 0.5 0.5 0.5 0.5 0.5 0.5 0.5 0.5 0.5 0.5 0.5 0.5 0.5 0.5 0.5 0.5 0.5 0.5 0.5 0.5 0.5 0.5 0.5 0.5 0.5 0.5 0.5 0.5 0.5 0.5 0.5 0.5 0.5 0.5 0.5 0.5 0.5 0.5 0.5 0.5 0.5 0.5 0.5 0.5 0.5 0.5 0.5 0.5 0.5 0.5 0.5 0.5 0.5 0.5 0.5 0.5 0.5 0.5 0.5 0.5 0.5 0.5 0.5 0.5 0.5 0.5 0.5 0.5 0.5 0.5 0.5 0.5 0.5 0.5 0.5 0.5 0.5 0.5 0.5 0.5 0.5 0.5 0.5 0.5 0.5 0.5 0.5 0.5 0.5 0.5 0.5 0.5 0.5 0.5 0.5 0.5 0.5 0.5 0.5 0.5 0.5 0.5 0.5 0.5 0.5 0.5 0.5 0.5 0.5 0.5 0.5 0.5 0.5 0.5 0.5 0.5 0.5 0.5 0.5 0.5 0.5 0.5 0.5 0.25 0.75 0.25 0.75 0.5 0.5 0.5 0.5 0.5 0.5 0.5 0.5 0.5 0.5 0.5 0.5 0.5 0.5 0.5 0.5 0.5 0.5 0.5 0.5 0.5 0.5 0.5 0.5 0.5 0.5 0.5 0.5 0.5 0.5 0.5 0.5 0.5 0.5 0.5 0.5 0.5 0.5 0.5 0.5 0.5 0.5 0.5 0.5 0.5 0.5 0.07142857142857142 0.9285714285714285 0.5 0.5 0.5 0.5 0.5 0.5 0.5 0.5 0.5 0.5 0.5 0.5 0.5 0.5 0.5 0.5 0.5 0.5 0.5 0.5 0.5 0.5 0.5 0.5 0.5 0.5 0.5 0.5 0.5 0.5 0.5 0.5 0.5 0.5 0.5 0.5 0.5 0.5 0.5 0.5 0.5 0.5 0.5 0.5 0.5 0.5 0.5 0.5 0.5 0.5 0.5 0.5 0.5 0.5 0.5 0.5 0.5 0.5 0.5 0.5 0.5 0.5 0.5 0.5 0.5 0.5 0.5 0.5 0.5 0.5 0.5 0.5 0.5 0.5 0.5 0.5 0.5 0.5 0.5 0.5 0.5 0.5 0.5 0.5 0.5 0.5 0.5 0.5 0.5 0.5 0.5 0.5 0.5 0.5 0.5 0.5 0.5 0.5 0.5 0.5 0.5 0.5 0.5 0.5 0.5 0.5 0.5 0.5 0.5 0.5 0.5 0.5 0.5 0.5 0.5 0.5 0.5 0.5 0.5 0.5 0.5 0.5 0.5 0.5 0.5 0.5 0.5 0.5 0.5 0.5 0.5 0.5 0.5 0.5 0.5 0.5 0.5 0.5 0.5 0.5 0.5 0.5 0.5 0.5 0.5 0.5 0.5 0.5 0.5 0.5 0.5 0.5 0.5 0.5 0.5 0.5 0.5 0.5 0.5 0.5 0.025 0.9750000000000001 0.5 0.5 0.125 0.875 0.02941176470588235 0.9705882352941176 0.5 0.5 0.5 0.5 0.5 0.5 0.5 0.5 0.5 0.5 0.25 0.75 0.5 0.5 0.02941176470588235 0.9705882352941176 0.05555555555555555 0.9444444444444444 0.5 0.5 0.5 0.5 0.5 0.5 0.5 0.5 0.5 0.5 0.5 0.5 0.5 0.5 0.5 0.5 0.5 0.5 0.5 0.5 0.5 0.5 0.5 0.5 0.5 0.5 0.5 0.5 0.02272727272727273 0.9772727272727273 0.5 0.5 0.5 0.5 0.04545454545454546 0.9545454545454546 0.5 0.5 0.5 0.5 0.5 0.5 0.5 0.5 0.5 0.5 0.5 0.5 0.5 0.5 0.07142857142857142 0.9285714285714285 0.5 0.5 0.5 0.5 0.5 0.5 0.5 0.5 0.5 0.5 0.5 0.5 0.5 0.5 0.5 0.5 0.5 0.5 0.5 0.5 0.5 0.5 0.5 0.5 0.5 0.5 0.5 0.5 0.5 0.5 0.5 0.5 0.5 0.5 0.5 0.5 0.5 0.5 0.5 0.5 0.5 0.5 0.5 0.5 0.5 0.5 0.5 0.5 0.5 0.5 0.5 0.5 0.5 0.5 0.5 0.5 0.5 0.5 0.5 0.5 0.5 0.5 0.5 0.5 0.5 0.5 0.5 0.5 0.5 0.5 0.5 0.5 0.5 0.5 0.5 0.5 0.5 0.5 0.5 0.5 0.5 0.5 0.5 0.5 0.5 0.5 0.5 0.5 0.5 0.5 0.5 0.5 0.5 0.5 0.5 0.5 0.5 0.5 0.5 0.5 0.5 0.5 0.5 0.5 0.5 0.5 0.5 0.5 0.5 0.5 0.5 0.5 0.5 0.5 0.5 0.5 0.5 0.5 0.5 0.5 0.5 0.5 0.5 0.5 0.5 0.5 0.5 0.5 0.5 0.5 0.5 0.5 0.5 0.5 0.5 0.5 0.1 0.9 0.002222222222222222 0.9977777777777778 0.5 0.5 0.02941176470588235 0.9705882352941176 0.01219512195121951 0.9878048780487805 0.5 0.5 0.5 0.5 0.5 0.5 0.5 0.5 0.5 0.5 0.02380952380952381 0.9761904761904762 0.04166666666666666 0.9583333333333333 0.004347826086956522 0.9956521739130435 0.02 0.98 0.5 0.5 0.5 0.5 0.5 0.5</probabilities>
		</cpt>
	</nodes>
	<extensions>
		<genie version="1.0" app="GeNIe 5.0.4830.0 ACADEMIC" name="water_dataset_categorical">
			<node id="Specific_conductance__Maximum_">
				<name>Specific conductance (Maximum)</name>
				<interior color="e5f6f7" />
				<outline color="000080" />
				<font color="000000" name="Arial" size="8" />
				<position>1097 388 1169 436</position>
				<barchart active="true" width="146" height="99" />
			</node>
			<node id="pH__standard_units__Maximum_">
				<name>pH, standard units (Maximum)</name>
				<interior color="e5f6f7" />
				<outline color="000080" />
				<font color="000000" name="Arial" size="8" />
				<position>78 573 150 621</position>
				<barchart active="true" width="158" height="99" />
			</node>
			<node id="pH__standard_units__Minimum_">
				<name>pH, standard units (Minimum)</name>
				<interior color="e5f6f7" />
				<outline color="000080" />
				<font color="000000" name="Arial" size="8" />
				<position>1052 53 1124 101</position>
				<barchart active="true" width="149" height="97" />
			</node>
			<node id="Specific_conductance__Minimum_">
				<name>Specific conductance (Minimum)</name>
				<interior color="e5f6f7" />
				<outline color="000080" />
				<font color="000000" name="Arial" size="8" />
				<position>417 229 489 277</position>
				<barchart active="true" width="147" height="91" />
			</node>
			<node id="Specific_conductance__Mean_">
				<name>Specific conductance (Mean)</name>
				<interior color="e5f6f7" />
				<outline color="000080" />
				<font color="000000" name="Arial" size="8" />
				<position>324 562 396 610</position>
				<barchart active="true" width="138" height="97" />
			</node>
			<node id="Dissolved_oxygen__Maximum_">
				<name>Dissolved oxygen (Maximum)</name>
				<interior color="e5f6f7" />
				<outline color="000080" />
				<font color="000000" name="Arial" size="8" />
				<position>652 62 724 110</position>
				<barchart active="true" width="139" height="93" />
			</node>
			<node id="Dissolved_oxygen__Mean_">
				<name>Dissolved oxygen (Mean)</name>
				<interior color="e5f6f7" />
				<outline color="000080" />
				<font color="000000" name="Arial" size="8" />
				<position>110 98 182 146</position>
				<barchart active="true" width="147" height="91" />
			</node>
			<node id="Dissolved_oxygen__Minimum_">
				<name>Dissolved oxygen (Minimum)</name>
				<interior color="e5f6f7" />
				<outline color="000080" />
				<font color="000000" name="Arial" size="8" />
				<position>591 536 663 584</position>
				<barchart active="true" width="145" height="99" />
			</node>
			<node id="Temperature__Mean_">
				<name>Temperature (Mean)</name>
				<interior color="e5f6f7" />
				<outline color="000080" />
				<font color="000000" name="Arial" size="8" />
				<position>827 546 899 594</position>
				<barchart active="true" width="139" height="90" />
			</node>
			<node id="Temperature__Minimum_">
				<name>Temperature (Minimum)</name>
				<interior color="e5f6f7" />
				<outline color="000080" />
				<font color="000000" name="Arial" size="8" />
				<position>148 365 220 413</position>
				<barchart active="true" width="151" height="91" />
			</node>
			<node id="Temperature__Maximum_">
				<name>Temperature (Maximum)</name>
				<interior color="e5f6f7" />
				<outline color="000080" />
				<font color="000000" name="Arial" size="8" />
				<position>1063 553 1135 601</position>
				<barchart active="true" width="157" height="103" />
			</node>
			<node id="Target">
				<name>Target</name>
				<interior color="e5f6f7" />
				<outline color="000080" />
				<font color="000000" name="Arial" size="8" />
				<position>1349 209 1421 257</position>
				<barchart active="true" width="128" height="64" />
			</node>
			<textbox>
				<caption>Input file: water_dataset_categorical.csv\nData rows: 26085\nElapsed time: 0.891s\n\nLearning algorithm: Bayesian Search\nAlgorithm parameters:\nIterations: 20\nMax parent count: 8\nSample size: 50\nLink probability: 0.1\nPrior link probability: 0.001\nSeed: 0\nMax search time: 0\nBackground knowledge was provided:\n  forced arcs: 4\n  nodes assigned to tiers: 1\n\nBest score in iteration 0: -90536.3\nEM Log Likelihood: -105992</caption>
				<font color="000000" name="Arial" size="8" />
				<position>1278 374 1475 640</position>
			</textbox>
		</genie>
	</extensions>
</smile>
